{
  "displayName": "J48 pruned tree request using data storage API",
  "testType": "USING_API_DATA_STORAGE",
  "trainDataPath": "classpath:/data/credit.xlsx",
  "request": {
    "classifierOptions": {
      "type": "j48",
      "unpruned": false,
      "numFolds": 3,
      "binarySplits": false
    },
    "evaluationMethod": "CROSS_VALIDATION",
    "numFolds": 10,
    "numTests": 1,
    "seed": 1
  },
  "expectedResponse": {
    "responseCode": "SUCCESS"
  }
}
