{
  "displayName": "J48 unpruned tree request",
  "trainDataPath": "classpath:/data/credit.json",
  "request": {
    "classifierOptions": {
      "type": "j48",
      "unpruned": true,
      "binarySplits": false
    },
    "evaluationMethod": "CROSS_VALIDATION",
    "numFolds": 10,
    "numTests": 1,
    "seed": 1
  },
  "expectedResponseCode": "SUCCESS"
}
